Language model created by QuickLM on Tue Jul 21 18:17:39 EDT 2015
Copyright (c) 1996-2010 Carnegie Mellon University and Alexander I. Rudnicky

The model is in standard ARPA format, designed by Doug Paul while he was at MITRE.

The code that was used to produce this language model is available in Open Source.
Please visit http://www.speech.cs.cmu.edu/tools/ for more information

The (fixed) discount mass is 0.5. The backoffs are computed using the ratio method.
This model based on a corpus of 20 sentences and 22 words

\data\
ngram 1=22
ngram 2=40
ngram 3=20

\1-grams:
-0.7782 </s> -0.3010
-0.7782 <s> -0.2218
-2.0792 ALFRED -0.2218
-2.0792 BE -0.2218
-2.0792 BEING -0.2218
-2.0792 BUT -0.2218
-2.0792 DID -0.2218
-2.0792 FIRST -0.2218
-2.0792 IN -0.2218
-2.0792 IS -0.2218
-2.0792 IT -0.2218
-2.0792 JASPER -0.2218
-2.0792 NOW -0.2218
-2.0792 OF -0.2218
-2.0792 ON -0.2218
-2.0792 RIGHT -0.2218
-2.0792 SIRI -0.2218
-2.0792 SPENCER -0.2218
-2.0792 WHAT -0.2218
-2.0792 WHICH -0.2218
-2.0792 WITH -0.2218
-2.0792 WORK -0.2218

\2-grams:
-1.6021 <s> ALFRED 0.0000
-1.6021 <s> BE 0.0000
-1.6021 <s> BEING 0.0000
-1.6021 <s> BUT 0.0000
-1.6021 <s> DID 0.0000
-1.6021 <s> FIRST 0.0000
-1.6021 <s> IN 0.0000
-1.6021 <s> IS 0.0000
-1.6021 <s> IT 0.0000
-1.6021 <s> JASPER 0.0000
-1.6021 <s> NOW 0.0000
-1.6021 <s> OF 0.0000
-1.6021 <s> ON 0.0000
-1.6021 <s> RIGHT 0.0000
-1.6021 <s> SIRI 0.0000
-1.6021 <s> SPENCER 0.0000
-1.6021 <s> WHAT 0.0000
-1.6021 <s> WHICH 0.0000
-1.6021 <s> WITH 0.0000
-1.6021 <s> WORK 0.0000
-0.3010 ALFRED </s> -0.3010
-0.3010 BE </s> -0.3010
-0.3010 BEING </s> -0.3010
-0.3010 BUT </s> -0.3010
-0.3010 DID </s> -0.3010
-0.3010 FIRST </s> -0.3010
-0.3010 IN </s> -0.3010
-0.3010 IS </s> -0.3010
-0.3010 IT </s> -0.3010
-0.3010 JASPER </s> -0.3010
-0.3010 NOW </s> -0.3010
-0.3010 OF </s> -0.3010
-0.3010 ON </s> -0.3010
-0.3010 RIGHT </s> -0.3010
-0.3010 SIRI </s> -0.3010
-0.3010 SPENCER </s> -0.3010
-0.3010 WHAT </s> -0.3010
-0.3010 WHICH </s> -0.3010
-0.3010 WITH </s> -0.3010
-0.3010 WORK </s> -0.3010

\3-grams:
-0.3010 <s> ALFRED </s>
-0.3010 <s> BE </s>
-0.3010 <s> BEING </s>
-0.3010 <s> BUT </s>
-0.3010 <s> DID </s>
-0.3010 <s> FIRST </s>
-0.3010 <s> IN </s>
-0.3010 <s> IS </s>
-0.3010 <s> IT </s>
-0.3010 <s> JASPER </s>
-0.3010 <s> NOW </s>
-0.3010 <s> OF </s>
-0.3010 <s> ON </s>
-0.3010 <s> RIGHT </s>
-0.3010 <s> SIRI </s>
-0.3010 <s> SPENCER </s>
-0.3010 <s> WHAT </s>
-0.3010 <s> WHICH </s>
-0.3010 <s> WITH </s>
-0.3010 <s> WORK </s>

\end\